14 10
SBV -1.0033807215493893 -0.07041401538712758 -0.08936605458334912 -0.2217208564661116 -0.28520721707886076 -1.6519856833899011 -0.6698027822354234 -2.6374960988501845 1.9339859903962748 -0.23614358815184697
COO 1.9407373017783374 7.32643182202284 -0.2642279708455644 0.08992652192355727 -0.18320831464809756 0.22051662870610975 0.13050557273415078 0.22091293902089024 -0.007542601470841252 0.004153235431127266
ATT 13.752780058285424 -1.6030691204278635 -0.09454936063222284 -0.050155993578930386 -0.01129505678435751 -0.02116514122621355 0.006195758281337958 0.03689179338672713 -0.024987420965695374 0.0031101844671744413
VOB -1.282635900319983 -0.2919973648366423 0.02424089659211039 -0.2339733213072023 -0.19649029917268046 -1.1312049796749766 -0.34150600008511994 -1.0827048395853431 -1.4723917775817874 2.0731838172897206
FOB -1.3464645904204706 -0.4652512444992663 -0.23158597896788363 -0.16804099186533278 -0.07959256467724271 -0.2787553536473454 0.18288035848430123 -0.2500223624810607 -0.8342244105361973 -0.8226871635328786
IOB -1.3472338111184228 -0.46590199250813963 -0.2334327653787338 -0.1676861418102487 -0.07849463413993832 -0.27246018615085815 0.1864060088389579 -0.23369128556467683 -0.8426531865633844 -0.8325122694140218
POB -1.4313711586748952 -0.49482691373033244 -0.06408232986350405 -0.45536012144224175 -0.2957724444932289 -2.7064349277635644 -1.718675243108234 2.6795698813276947 0.6278633989941184 0.1019631439530364
RAD -1.3926920031704202 -0.7878215019292066 -2.1334710723921946 4.633838275432241 0.39381328311720043 1.0636754416796752 -0.3133115177131365 0.28041410474639566 0.35122405118658195 0.2379837851214375
ADV -0.9542056120263843 -0.2746295756028105 5.217597351379651 1.031939561486284 0.25429835935249523 1.3668648450447858 -0.7277663557210842 0.13640351497891973 0.20084343654400488 0.05010603583792195
DBL -1.346400258416251 -0.46615998590798524 -0.23303133864545636 -0.16898672075006269 -0.07865638211638258 -0.27974766064559825 0.18217169563292454 -0.24859771755868323 -0.8330933933418637 -0.823017868238824
CMP -1.30790668861641 -0.4402575883542726 -0.06407236063727571 -0.13920745428301037 -0.06892918023446706 -0.23691226559907816 0.2196778168609545 -0.2223104015523989 -0.8538572307705085 -0.7610686597370926
WP -1.547533454930082 -0.8714476448324496 -1.1598834930632325 -1.8092727297944537 -3.3799374802731044 2.7263493977465365 -0.6011140141024701 0.33998522231321293 0.5031573930013046 0.3016924358110476
HED -1.3223330305329488 -0.4027006091107611 -1.124003645668409 -2.100541706188847 4.040584156044236 1.7069345555766566 -0.5647085602939143 0.2038115508419222 0.42723793218120404 0.25985714134249255
LAD -1.411360130288098 -0.6919542648959741 0.4498681227060615 -0.24075832135563904 -0.031112224895570695 -0.5056746706562197 4.029047262426758 0.7768336989765815 0.8244378189267964 0.4433797698207049