58 30
x 0.5049814 -2.057069 0.5460655 0.024402663 -0.2464638 -1.0313402 1.0967857 0.38767156 -2.026178 -0.34450337 0.2501174 -1.7160625 0.9565647 -1.5548306 -3.3213081 -1.2421252 -1.7338285 1.756144 0.9203756 0.7083889 0.72396713 -2.2137399 -0.2572384 -0.060501046 -0.67262113 -1.0031432 0.7686806 -0.1807451 -1.319462 0.9288907
n -0.85488844 0.42561114 0.89954543 -0.066884935 -0.6531421 0.8929188 -0.5524929 0.45106035 -0.9337045 0.30283564 1.1932666 0.8337664 0.024875533 -0.43760046 -0.08398705 -0.051120877 0.5698725 1.5334135 1.4157314 -0.57412374 -0.33348405 0.11333331 -0.7879167 -0.12621094 1.5144043 -0.15968643 -0.23835315 0.8021108 0.94229984 0.87774336
v -0.16655433 0.58996344 -0.14250046 0.44539768 -0.23858747 1.4164126 -0.53773034 0.16920331 0.5534058 1.1161475 0.47176546 0.037690036 0.24130964 0.42763188 1.4146854 0.79106444 0.748376 0.4617588 0.6199921 -0.17000566 -0.76657647 0.18308201 -0.5458391 -0.03858217 0.31191 0.18585391 -0.8738832 0.72013783 0.8377769 -0.51588017
m -4.374082 -0.65925074 3.0610223 -3.3269079 -0.03820276 0.6109071 -0.8194989 0.55880964 -1.0578718 0.5561856 3.5756671 -3.5300174 -0.28386897 -0.7760113 -4.2975426 4.3916736 -1.3424746 1.9462494 2.6357567 -0.05815673 1.720626 -0.9619255 3.9408617 -2.0532422 -1.2638992 0.3259962 3.1667933 -3.858005 2.284571 2.0448213
p -0.3075213 0.44721928 0.625281 -0.038507424 0.26871347 0.41703314 -0.784029 -0.16244744 -0.21055114 0.39965385 1.6653214 0.07271525 -0.34365997 0.3808668 -0.021157157 1.758602 0.16848102 0.08120662 0.5729499 -1.6556764 -0.0035400197 0.499179 -0.3631643 -1.0231905 0.20069732 0.17128056 0.070509076 0.1355408 0.62301 0.18705975
ns -0.7083674 -0.6461535 2.3320575 0.22802109 0.9201167 0.51567376 -0.25555688 -1.2233855 -4.7217736 3.309561 4.8504767 1.4969641 -3.3705254 -1.5007964 -3.2223194 -1.4939753 -1.7025926 -0.94610745 0.62919587 -1.3071185 5.9710207 -0.08046213 -0.25853905 -1.4559249 0.13367413 2.7426603 1.6238769 0.9320589 -2.1681027 0.948461
uj 1.6933211 1.3608094 0.14808893 1.8738676 1.4842341 0.30030096 0.27709588 0.85752845 1.5815568 1.9333062 -0.19549169 0.7993552 0.2818467 0.682206 1.5802191 1.1503198 0.1934603 1.3098961 0.9336578 -1.8826209 -2.0858376 1.3217657 -0.3298673 1.0935743 -0.3393628 -0.011641038 -1.0992398 1.0452589 0.17998901 0.20429736
nr 1.5396186 -3.8312085 -0.7715139 0.25687915 -0.77085066 -2.6891923 -0.16367649 -3.3583167 -0.40531546 3.2227473 0.4700862 -2.060643 -2.1407526 0.005749462 0.07522136 -3.6727147 0.06709055 -1.2916394 -1.4270251 2.7477593 5.7340174 -3.641336 1.8295238 -3.6950645 -0.014201852 1.3249625 -0.4381951 -0.19306494 -0.008060337 -0.48896268
d 0.666848 1.9603102 -1.4852908 0.50149256 -0.23556681 1.5530379 -0.19130899 0.3447079 2.2923772 0.8059097 -0.82532465 0.6130626 0.9060183 0.65157557 2.8185596 0.55709237 1.2807894 -0.119542226 -0.16834562 -0.5185693 -1.4543986 0.9132168 -1.0796925 0.9419561 0.23458143 0.7836398 -0.9731781 0.8231505 0.68402004 -2.0590985
c 0.9168081 1.1541309 -0.8810503 1.2132233 0.10846056 1.0564427 0.3549408 1.0939718 1.4050881 -0.07281225 -1.276074 1.2500268 0.59769183 0.7534429 2.371086 0.8436248 0.94640446 0.7012393 -0.34717354 -1.2415022 -2.8927028 1.3290683 -1.7669331 0.9081156 0.18230002 0.39184418 -0.9528208 1.4318037 0.5939721 -0.90646976
r 1.7583969 1.0417877 -1.5474931 0.88088584 0.052547414 1.284709 -0.34827322 0.5035435 2.8563888 2.8514192 -0.6529774 -0.59472096 0.38314846 0.21268164 3.8069272 1.9720131 0.92924637 -0.06460588 -0.2363302 -0.08945559 -2.8286579 0.73273957 -0.25781032 1.4563631 -1.2590262 0.081534505 -2.4634366 -0.59930444 0.8637021 -0.71994644
eng 1.5329226 -5.9621468 0.99103945 2.3549404 2.3551524 -3.4983861 4.8024383 3.916083 -1.0777656 -4.6295056 -3.5260053 -5.425401 7.0924954 -4.4621253 -6.354541 2.4986897 -6.479137 1.7611648 0.5430988 -1.1407262 -7.3722577 0.24672657 -0.9100434 4.059613 -4.6041236 -5.7110934 0.74681723 -0.7881175 -4.9048085 2.070623
f 0.92673653 1.2141471 0.093153544 1.301935 0.24574201 1.7191385 -0.9388912 -0.23958494 0.90510684 2.396912 1.5793513 0.7076349 -0.39517832 0.33403045 0.33605248 0.155462 -0.11271681 -0.9942527 1.4534583 -0.5599435 1.0382777 0.86098677 0.69933885 -0.20271713 0.5927285 -0.45167235 -0.28836492 1.15433 -0.20906389 0.16866109
a 0.7540539 3.4876122 -0.9817746 0.28087065 0.13419609 0.96084434 -0.44983113 1.5033698 1.0581005 -0.27128473 -0.8193549 0.9265746 1.587716 -0.82340854 1.0731236 -1.8284464 2.4606133 0.014350515 1.383602 0.84326893 -1.376676 1.7134763 -0.5160517 1.1319748 0.80398154 -0.006290451 -1.2124257 1.5497737 0.944321 -2.5432866
vn -1.2907872 0.88194954 1.5471026 0.34989628 -0.93905574 -0.6290497 0.08375141 2.191994 -0.8961738 -1.3447816 -1.1815745 -0.23377247 -0.37965113 0.5111468 1.6431353 3.1843557 1.0163037 2.6108232 -0.342433 -3.755086 -3.4054103 1.725299 -1.9889531 -0.94140846 2.124326 0.17857105 1.0842438 1.3911315 3.316073 0.67660236
t -1.1298993 -0.8121885 -0.52396923 -0.15564139 -0.5664047 0.24392723 0.09933258 -1.5378423 0.16283186 -0.7684327 3.1177526 -2.8884723 -1.5254295 0.6188765 2.1826851 0.29217345 0.48144823 -0.91423184 0.0151232695 -1.357876 3.5931373 -0.503482 0.92667526 -0.5300661 2.0361063 1.9150097 3.173434 -1.5701938 0.62883586 -2.8553908
nrt 6.2447557 -5.6414013 1.5234603 3.081183 5.1558495 -3.8034713 1.9633728 -0.6619967 2.7337239 6.534321 3.2016847 -1.943047 -3.730993 -0.08935777 -1.2929702 -1.4406346 -0.1953379 -2.094058 -3.6368377 2.5385396 1.411641 -0.68280673 3.9244924 -1.4973851 -6.276985 1.0867158 -3.0151448 -0.39382437 1.2799618 2.783574
nz 1.2101029 -3.4328656 -1.5582904 0.21280476 3.3300707 2.3035917 3.5499904 0.23279433 -2.4450357 -0.35064536 0.8557232 3.2700136 -3.7704072 1.8551033 -2.3458958 -0.66139346 0.9646492 -0.104962386 1.5964342 1.268268 -0.8288956 -1.9791899 1.64369 -1.8832465 4.3951025 -2.2595372 3.5304282 -1.5991138 -1.4618436 -0.37570062
b -2.7290616 0.28501496 2.022234 -0.20037694 -2.8712766 0.62447345 0.75276494 -0.8124884 -1.8016592 -1.6495333 2.2103114 1.9692312 -1.1111418 -1.1414254 -0.3922645 0.05093705 0.5269837 3.280551 1.1760782 -1.4940419 -3.004392 -0.7173705 -1.9903939 1.0568517 2.016283 1.0567446 -2.215913 -1.4022068 0.5969324 2.8573961
q 0.89794475 3.8550506 -1.2210329 -3.9280407 0.09013697 0.8809863 -1.9509144 -0.025174292 -0.6974817 3.7578175 2.8249059 -2.2246304 0.43087927 -1.4113541 -4.5003695 -5.529785 -1.7357928 -1.9266686 3.3246543 1.083965 0.7425232 0.04798053 2.9510589 1.7251996 0.11927604 -1.7276458 1.2258679 -0.4071363 2.8608644 5.633007
ul 2.8283322 1.2406465 -0.32129544 1.7021519 0.8699009 -1.5278171 5.2731175e-05 0.8043494 1.540226 3.6321657 -1.9711573 -1.8888538 -1.3412968 0.8548165 3.9651084 5.163802 0.40813935 -1.0078616 -0.8996546 -1.0656147 -3.492294 1.769922 1.786158 -1.119116 -1.6321652 1.0966549 -1.6179223 -2.068045 0.28708205 -2.4554815
nt -7.7852306 -1.8803955 5.674435 -2.4317124 -4.023644 2.2684536 1.658303 0.052077405 -4.7419505 2.2098958 0.85539144 1.5163215 -4.814011 -1.3871095 -1.4166257 6.096314 0.61975545 6.1272683 -1.7074437 -0.11819916 1.5324703 -2.817684 -2.6883867 -5.0533133 0.7901868 1.2501403 -0.94511265 -1.3859651 -1.0737286 1.6490437
u -0.40188804 1.374745 -1.2627589 -1.3253186 -1.4114442 -2.5494213 -0.649958 -0.5663042 -0.6324787 -2.9681718 -2.5068297 3.374463 -1.2923956 -0.9741731 0.05876731 -3.0844092 1.1957 -0.399732 -0.052632853 -1.2404627 2.9846156 -3.5018067 -2.877767 -0.4748048 2.6639771 1.9262134 -0.8937224 1.4442941 0.060375407 -0.8380572
l -0.21099678 2.575175 -1.757839 1.8482449 -0.50135475 0.19119711 -2.93457 2.7980301 1.6359751 -1.3413469 -0.6513645 1.8790252 -0.5862459 -0.04782066 2.8075275 3.1576777 -0.06530406 4.107245 -1.5281832 0.7827762 -3.280869 0.25388128 -2.9030073 0.7107643 0.27706516 -1.1808622 0.83243656 1.7879142 0.33335814 -0.40264484
ng -0.996817 1.1124048 -0.017493585 -0.65659475 0.9597732 0.6009178 -0.6229323 -3.6812837 2.8943443 -6.5690665 0.07789681 1.3771403 -0.15376423 0.005852111 -1.7108301 -4.0198407 3.380733 -3.8153477 0.57900566 2.558081 5.7240763 -1.2595206 2.5537105 -1.0382837 3.695308 -1.1841642 -3.2148168 2.0995388 -1.3846737 -0.96580374
j -4.246847 1.4421955 5.9110427 2.9414408 -2.7748156 0.58359367 1.6419432 3.0928538 -1.6252036 0.37455907 1.6680799 3.3888535 -3.0483217 0.45989278 -2.0111744 -2.355869 -0.3607052 -2.260478 -3.6615112 2.4464827 0.18415399 -2.186983 1.1719499 -4.2790823 -1.152233 3.409344 2.4226933 -2.9157221 1.1774654 1.6528836
zg -0.8148985 -0.11692446 -1.1448128 -0.44743842 -1.4954234 2.7302287 -0.11936488 -1.9032263 -2.5392017 -2.3403585 0.24667636 -2.9932246 -1.4562523 0.48520857 -0.4348148 -7.711193 0.3418805 0.27532804 2.1799412 4.0413404 5.881109 2.8071916 0.4589817 1.0597272 -0.10036385 1.6892699 0.8930264 3.1418357 0.81948715 1.3532015
s -0.4353234 1.9984179 -0.029457647 0.30106112 0.06423542 -1.2620063 -2.345747 -1.3544359 -2.7158103 3.785739 2.824288 3.5217657 3.345018 3.2591453 0.052838232 -0.34796825 1.4238347 -2.52568 0.13272934 -1.9751351 2.7202542 3.2104454 -0.8395231 -0.20336203 1.7189693 1.293449 -0.6922974 1.8122638 -0.517311 0.6363139
i 3.1283748 4.2943206 -3.5496912 -0.3435273 -3.0511124 -1.3369576 -0.10374131 -1.7832888 1.0172341 0.6268886 -2.5657773 1.5839 0.78325063 2.6636786 1.4540685 1.1317562 -0.4027472 -0.41137305 -1.4547595 2.524011 1.4373453 -0.3402992 -2.1863282 0.40434808 -0.40310776 -0.13022105 -1.2616817 -0.46458372 1.3204072 -4.615965
ad -0.83142805 0.44945192 -0.9405346 0.2483261 0.23699996 2.6482959 -0.25752848 0.7950837 1.0699656 -0.25849852 -1.7364075 0.80648875 0.8356928 1.5078479 0.85512763 4.434891 0.5703982 1.0785756 0.05805174 -1.5351098 -3.139654 0.7759003 -0.03921395 -0.5745604 -1.9482263 2.8160813 0.06300002 0.62050223 2.812253 -0.5027872
vg -0.22248846 -1.9558114 -2.3087611 -2.912914 -4.2467604 0.35807672 -1.4331049 0.607253 0.32486412 -4.537316 -0.28601322 0.93794686 0.04905187 2.9342322 1.8468549 -7.4567595 1.3426596 -3.4084375 0.46994436 2.8339486 8.087682 -3.5602193 1.5730846 0.0016999638 1.1373907 -0.51050544 -0.08184463 -0.7363307 -0.08085146 -2.6728806
g 0.5177644 1.4946134 0.17030846 -0.51793295 1.6900734 0.89690787 -1.2105386 -4.390193 -1.1362113 -5.3089066 0.9886065 2.3480916 2.4674847 -0.34456715 1.7506156 -6.8048415 -3.591019 -1.733209 0.10679823 2.2015076 4.9071555 -3.3449821 2.5762784 -2.1987898 2.1831381 -0.9228075 -0.026982047 2.3932364 0.35982156 -2.97087
k 0.5002337 -0.049152654 1.0087813 -3.5059364 -1.9370182 -2.3678255 0.8845481 1.5192704 3.5160398 -4.1220393 -2.1442003 1.7341633 1.0147227 2.65617 3.007397 0.23212458 -2.7471347 -1.1149138 3.3076935 0.5316166 -5.935499 5.507005 0.06674642 3.8697407 1.6491283 1.6105654 -0.559363 1.6873537 -1.6692896 -0.025787361
uv 5.05645 4.0211196 -2.4423945 1.6611441 0.9486582 -0.7552451 -1.7317854 0.4803867 -3.5098526 -0.19761091 -2.3944683 2.6490474 0.19576545 -0.992081 0.7382866 0.7906237 1.5692931 -2.2033594 -1.3790278 -4.1587214 2.466822 -1.4242961 -2.8428986 3.6822746 1.8585842 6.699341 -1.3153756 3.157405 0.8330214 -1.2768902
z 1.8182809 1.0402458 -1.723085 3.3359115 2.714389 -1.6832849 -1.1082221 -0.4050012 0.8719844 -0.009644353 -3.3694372 1.7095733 1.8968146 -0.46680614 -0.025179403 -0.41664463 0.7001416 -0.5032683 1.9010711 3.2891572 0.44398877 1.2786707 -2.543958 0.47731528 3.2759209 -1.4852734 0.01115092 -6.2847967 0.9011725 -1.8325433
y 0.17677172 0.5506832 -2.2056513 -4.9324064 -4.148061 -0.10449721 -1.7983305 -0.4161828 3.755896 -4.549632 -4.182433 2.22747 0.7606508 1.2147527 4.56952 -5.047041 -0.30603996 -4.1090302 1.5864297 3.9489558 1.4976124 4.0228095 0.7934591 2.038705 2.1885161 3.1697152 -0.42680362 0.24466236 -3.6063747 0.059927613
nrfg -4.6743336 -1.2851846 -3.500752 0.45601147 -5.761564 -2.856737 -2.513395 -3.7800298 -2.1603582 0.34842217 -1.3199052 -2.3500154 -1.3583119 1.1300066 -0.97249115 -2.6441224 -1.513287 0.7351318 1.9522036 2.4633718 4.4388127 -5.1979074 1.293408 -4.2739415 4.0913515 2.1108904 2.715123 1.2681993 -1.8446289 -5.467608
yg -2.8376944 2.9681284 -0.06472104 -1.7760333 -3.9583852 3.5499306 0.16955495 -2.7051237 1.8814696 -4.1364574 -2.1442595 -0.86753553 1.0438972 0.4886417 -1.838898 -6.267936 -1.2319734 -6.435271 0.40484855 3.6349137 5.3024898 1.6661447 0.4954835 -1.4829332 2.2125618 -0.65610695 2.9806006 0.770701 0.65819967 4.0271873
ug -1.127975 0.70928824 -1.305447 -1.174554 1.2360656 0.823629 1.7622845 0.06724366 3.7538798 2.0870922 -1.6251307 0.24732317 0.4337555 -0.17443767 3.5540235 0.26410884 1.446316 0.35322225 -3.4546843 -0.7896455 -0.29448262 1.1607821 -2.1083384 -0.633284 -0.0998085 0.9700659 0.97287637 -1.1001712 -0.86940634 -2.9774399
tg -1.4035561 -0.41090813 2.382987 -3.4333544 -1.4849657 0.26959935 -0.24719208 -0.16700779 -1.893933 0.08548193 1.4457581 0.31508377 -1.2821069 -2.4941866 -0.46981004 -3.2369878 -1.047128 -0.19673824 -1.4779638 2.3025715 6.0431104 -0.81969976 -2.9742975 0.07312478 4.16071 0.7495466 1.5161853 0.08031991 -3.3788757 -0.8911624
an -1.5203936 3.45324 -0.18161465 1.718618 -1.0968233 -1.1439091 2.554517 1.8177507 0.3890057 -1.3938428 -1.9102236 1.3035885 0.29756457 2.0680616 5.262562 2.4211054 2.9933288 0.27221656 -0.07390891 -1.6400653 -1.7428896 1.400243 -3.6578362 -0.08090758 -2.3949094 -1.186888 -1.1152135 3.1303127 1.6459657 -1.6470569
uz 2.4986267 3.1697204 -3.2548702 2.5603452 0.034090582 -1.1080501 -1.3773807 -0.21721162 2.440537 1.9010271 -1.9328418 2.3863227 1.3022815 3.1699474 4.351968 0.95995927 1.4754105 -1.7212902 0.08636627 -0.68702865 -0.6417333 2.79917 0.2571082 -0.32705036 -1.728571 -0.6906079 -1.676147 -0.5982797 -1.4275606 -1.5253568
ag 2.8075874 -2.8687646 0.07472081 -1.6698478 0.3181143 0.6005639 -3.6909485 -1.0739628 2.5442095 -1.7544018 -0.49905202 0.6967512 0.035506148 0.24286355 -3.9635408 -5.981318 -1.695548 -0.28753105 -2.5333505 2.0051727 4.7868233 1.1435641 2.9654572 -1.8387336 2.1796148 0.49496645 -2.1613846 -0.38907564 1.2648653 -3.2093644
mq 0.9881849 2.7129147 0.7905995 0.7692569 -0.276335 0.6694681 0.36887807 1.0082189 2.2171576 1.457737 -2.2268302 -0.56329864 -2.1516383 2.2031417 0.4056523 2.566983 -0.7804356 -0.87085843 -0.9890419 -2.0356383 0.109024875 3.2422376 0.097322874 -1.5987558 0.086390145 -1.0336546 -0.046610184 0.07895287 1.5061448 -2.7324104
ud -0.06763666 1.4753333 -4.4243593 -5.1712136 -0.06578671 -0.24639173 1.1952984 -0.35723162 2.8843122 1.0679449 -2.0206213 0.37153324 2.9820037 0.8240266 3.2122927 -2.9894261 2.7962818 0.13594566 -1.2917541 3.6514313 0.38018945 -0.6546853 -0.7219961 -2.168536 0.226226 -1.2819561 2.3337579 -0.7327025 1.4573729 -4.729239
h -1.8943119 -2.4471912 -1.4533147 0.5435429 -1.0270445 3.1173766 -0.16383152 1.2862436 3.2639108 -4.1794925 0.09406427 3.469336 0.99038565 1.6151999 -1.386728 0.33825383 -0.86363226 1.3770806 -1.2888159 -1.9753066 -4.115333 -0.32779157 -2.5483756 1.4597913 -0.0022948734 -0.20325242 -1.2223763 1.7519699 2.4572887 -1.0581489
vd -0.54590577 3.2794259 0.20740639 0.2962568 0.84328216 -0.22029719 -0.54174036 1.7934084 0.65500385 -2.3217769 -0.851302 -0.6241906 -0.0009911676 0.7328428 1.4745413 1.7862444 0.7067161 1.2278259 -0.7117241 -3.0099213 -0.4504416 4.0181413 0.8998483 -0.50988674 -1.5624903 0.001590182 1.154672 0.088430725 2.9183176 -0.8020884
o 0.99345636 2.3203304 -2.2070324 0.8820368 2.083812 -2.8159323 -1.0717019 -1.8331062 -0.4481214 0.00093153486 0.026320636 0.27386513 3.789821 -3.702441 3.209734 -2.1008177 2.954818 -1.4766777 0.6836374 4.0704713 1.5072418 0.17945956 4.115074 -1.1710366 0.07622458 0.95491165 2.411897 -2.1833518 -6.277574 4.42447
dg 0.5290679 -1.4781018 -2.1060069 -3.5215335 -2.7671556 0.7473752 -1.7967405 -0.42510447 2.6799552 -0.27231354 -0.5049714 1.6158158 1.2632209 0.5691996 -0.31207153 -3.9177704 1.8316807 -1.6787199 -2.4586654 4.092935 3.678313 0.34325856 -0.24644694 -1.1147492 1.9264945 0.29972464 -1.1306592 1.0698396 -0.2806982 -3.8307188
rg 6.303763 -2.9368021 0.768423 -3.1814694 2.5101652 -3.0691934 2.8174388 -1.0004641 1.4256933 2.6637459 1.9307456 -1.3530947 -2.737248 -0.13318972 2.4163558 -2.1527607 -1.751415 -2.0023272 0.2169575 -0.19948173 0.3674332 -1.6325082 2.473608 1.3125509 -2.2122862 -0.98043 -2.821863 2.7467055 -1.82024 2.9184675
df -1.1354014 0.93145037 -1.1239821 0.11187737 -1.4160485 -1.2683741 1.8533229 -2.485894 5.249549 2.8081424 -0.8210058 2.4178512 1.9415206 0.8356971 3.6719437 2.8327506 1.9360505 -1.1069132 -0.50048673 1.2762858 1.6296391 1.6096379 -0.85327417 -2.8137765 -1.0330167 -2.4075143 -0.5619397 0.48925483 -2.7660968 -2.0296316
rz 1.0437022 0.7373203 -1.2987612 0.47207725 1.00568 -1.7864277 0.35410866 -1.918772 3.7017596 2.1574402 -0.3983017 1.4915723 1.3485028 1.2179868 2.3739293 1.4551395 -0.57508826 -1.3254323 0.06838757 -0.048364714 0.5559546 1.5229162 1.1111151 -1.5881432 -0.83247656 -2.4677567 -0.7616548 -0.5864535 -2.068117 -2.0535536
rr -0.46685174 0.42988786 -0.49269772 1.105105 -0.6188284 -0.6601721 0.38125715 -1.9861319 4.150558 0.35406747 0.31473354 2.0951786 1.2237448 2.271492 2.2547626 2.599795 -0.20206526 -0.5714979 -0.64255446 -1.0110595 0.37380117 1.741927 0.24763528 -1.6240528 -0.33791965 -2.2736363 -0.9464374 0.4781139 -1.0582477 -1.8735057
mg 0.9763133 1.8317177 -0.7234852 -1.3762171 1.3593336 -3.4277637 -1.1264411 -1.5000541 -2.554227 -0.79131484 0.6419058 -0.72859514 2.7749734 -3.626281 5.073732 -0.931231 1.8862154 -2.8379493 0.6965989 4.3082294 1.2942194 -0.87512535 3.0310967 0.18200389 1.9720485 0.008275374 0.7542951 -0.59797037 -1.9316878 2.2745807
e -0.10798545 2.029806 -1.5276989 -0.6000466 1.486207 -1.5521073 0.21661778 -1.9230129 -0.0045221844 1.0795268 0.7557272 0.9528202 2.5467644 -3.2835631 4.423903 0.9544989 3.2418933 -1.4953077 2.5623417 3.9754262 0.84612995 -0.91025007 2.1698203 -0.47667098 0.12714346 -0.37693495 0.6226014 -2.2721353 -4.3448687 2.7729313
vi -0.34339264 0.85806865 -0.6766832 0.3814856 0.018622464 0.5672095 0.33065608 -0.04365766 1.7010715 -0.71375114 1.1471404 1.8940741 -0.0050495127 0.4414701 0.30524102 1.4098464 0.8081217 -0.23261426 -0.5454892 -0.49470675 -0.061873075 0.21062513 0.13762942 0.25370362 -0.59866005 -0.42365244 0.15438962 0.84652066 -0.7687755 1.2606837
vq -0.23254819 0.26599947 -0.18723187 0.45825696 -0.1679357 0.024480266 -0.3285604 -0.5632004 1.0667158 -0.21068448 -0.05795517 1.1384779 0.20036288 0.2577847 0.5437098 0.65427554 -0.0007686691 -0.48103198 -0.22166553 0.031932987 0.70214915 0.7304045 -0.22798508 -0.8924319 0.22426014 -0.90642834 -0.12324617 -0.27239043 0.21750012 -0.61833715
bg -0.033980474 -0.04858455 -0.07147243 0.060890727 -0.113942 0.019458856 -0.22016925 -0.17095588 0.059302215 -0.15101087 -0.0005217875 0.27675736 0.105909474 0.06301796 0.009902281 0.19356312 -0.031976327 -0.07859875 0.08013984 0.030078122 0.3108575 0.06956167 -0.28640142 -0.044128172 0.11305458 -0.18553135 0.045689873 -0.035281375 0.02708811 -0.14993548
